digraph Tree {
node [shape=box] ;
0 [label="X[27] <= 0.5\ngini = 0.499\nsamples = 6499\nvalue = [3381, 3118]"] ;
1 [label="X[42] <= 0.5\ngini = 0.289\nsamples = 3664\nvalue = [643, 3021]"] ;
0 -> 1 [labeldistance=2.5, labelangle=45, headlabel="True"] ;
2 [label="X[51] <= 0.5\ngini = 0.134\nsamples = 3232\nvalue = [234, 2998]"] ;
1 -> 2 ;
3 [label="X[80] <= 0.5\ngini = 0.052\nsamples = 3081\nvalue = [83, 2998]"] ;
2 -> 3 ;
4 [label="X[25] <= 0.5\ngini = 0.027\nsamples = 3039\nvalue = [41, 2998]"] ;
3 -> 4 ;
5 [label="X[2] <= 0.5\ngini = 0.015\nsamples = 3021\nvalue = [23, 2998]"] ;
4 -> 5 ;
6 [label="gini = 0.0\nsamples = 2918\nvalue = [0, 2918]"] ;
5 -> 6 ;
7 [label="X[23] <= 0.5\ngini = 0.347\nsamples = 103\nvalue = [23, 80]"] ;
5 -> 7 ;
8 [label="gini = 0.0\nsamples = 23\nvalue = [23, 0]"] ;
7 -> 8 ;
9 [label="gini = 0.0\nsamples = 80\nvalue = [0, 80]"] ;
7 -> 9 ;
10 [label="gini = 0.0\nsamples = 18\nvalue = [18, 0]"] ;
4 -> 10 ;
11 [label="gini = 0.0\nsamples = 42\nvalue = [42, 0]"] ;
3 -> 11 ;
12 [label="gini = 0.0\nsamples = 151\nvalue = [151, 0]"] ;
2 -> 12 ;
13 [label="X[58] <= 0.5\ngini = 0.101\nsamples = 432\nvalue = [409, 23]"] ;
1 -> 13 ;
14 [label="gini = 0.0\nsamples = 23\nvalue = [0, 23]"] ;
13 -> 14 ;
15 [label="gini = 0.0\nsamples = 409\nvalue = [409, 0]"] ;
13 -> 15 ;
16 [label="X[79] <= 0.5\ngini = 0.066\nsamples = 2835\nvalue = [2738, 97]"] ;
0 -> 16 [labeldistance=2.5, labelangle=-45, headlabel="False"] ;
17 [label="X[51] <= 0.5\ngini = 0.027\nsamples = 2776\nvalue = [2738, 38]"] ;
16 -> 17 ;
18 [label="X[6] <= 0.5\ngini = 0.004\nsamples = 2730\nvalue = [2725, 5]"] ;
17 -> 18 ;
19 [label="X[11] <= 0.5\ngini = 0.002\nsamples = 2728\nvalue = [2725, 3]"] ;
18 -> 19 ;
20 [label="X[3] <= 0.5\ngini = 0.001\nsamples = 2727\nvalue = [2725, 2]"] ;
19 -> 20 ;
21 [label="gini = 0.0\nsamples = 2568\nvalue = [2568, 0]"] ;
20 -> 21 ;
22 [label="X[83] <= 0.5\ngini = 0.025\nsamples = 159\nvalue = [157, 2]"] ;
20 -> 22 ;
23 [label="gini = 0.0\nsamples = 157\nvalue = [157, 0]"] ;
22 -> 23 ;
24 [label="gini = 0.0\nsamples = 2\nvalue = [0, 2]"] ;
22 -> 24 ;
25 [label="gini = 0.0\nsamples = 1\nvalue = [0, 1]"] ;
19 -> 25 ;
26 [label="gini = 0.0\nsamples = 2\nvalue = [0, 2]"] ;
18 -> 26 ;
27 [label="X[3] <= 0.5\ngini = 0.405\nsamples = 46\nvalue = [13, 33]"] ;
17 -> 27 ;
28 [label="gini = 0.0\nsamples = 13\nvalue = [13, 0]"] ;
27 -> 28 ;
29 [label="gini = 0.0\nsamples = 33\nvalue = [0, 33]"] ;
27 -> 29 ;
30 [label="gini = 0.0\nsamples = 59\nvalue = [0, 59]"] ;
16 -> 30 ;
}
